digraph Tree {
node [shape=box, style="filled, rounded", color="black", fontname="helvetica"] ;
edge [fontname="helvetica"] ;
0 [label="Primary Type <= 0.257\ngini = 0.882\nsamples = 205043\nvalue = [469.0, 1398.0, 7278.0, 6300.0, 6529.0, 6098.0, 48829.0\n17309.0, 15594.0, 30557.0, 384.0, 1193.0, 10519.0, 28.0\n51.0, 22757.0, 6417.0, 241.0, 1266.0, 4759.0, 18.0\n546.0, 157.0, 1317.0, 15029.0]\nclass = 06", fillcolor="#edfcea"] ;
1 [label="Description <= 0.229\ngini = 0.394\nsamples = 63928\nvalue = [469, 1254, 7278, 0, 0, 6098, 48829, 0, 0, 0, 0\n0, 0, 0, 0, 0, 0, 0, 0, 0, 0, 0, 0, 0, 0]\nclass = 06", fillcolor="#81ec6e"] ;
0 -> 1 [labeldistance=2.5, labelangle=45, headlabel="True"] ;
2 [label="Primary Type <= 0.148\ngini = 0.596\nsamples = 15069\nvalue = [469, 1234, 7268, 0, 0, 6098, 0, 0, 0, 0, 0, 0\n0, 0, 0, 0, 0, 0, 0, 0, 0, 0, 0, 0, 0]\nclass = 03", fillcolor="#fcf9e5"] ;
1 -> 2 ;
3 [label="Primary Type <= 0.063\ngini = 0.322\nsamples = 8971\nvalue = [469.0, 1234.0, 7268.0, 0.0, 0.0, 0.0, 0.0, 0.0, 0.0\n0.0, 0.0, 0.0, 0.0, 0.0, 0.0, 0.0, 0.0, 0.0, 0.0\n0.0, 0.0, 0.0, 0.0, 0.0, 0.0]\nclass = 03", fillcolor="#ebdb65"] ;
2 -> 3 ;
4 [label="Description <= 0.021\ngini = 0.399\nsamples = 1703\nvalue = [469, 1234, 0, 0, 0, 0, 0, 0, 0, 0, 0, 0, 0\n0, 0, 0, 0, 0, 0, 0, 0, 0, 0, 0, 0]\nclass = 02", fillcolor="#efca84"] ;
3 -> 4 ;
5 [label="gini = 0.0\nsamples = 469\nvalue = [469, 0, 0, 0, 0, 0, 0, 0, 0, 0, 0, 0, 0, 0\n0, 0, 0, 0, 0, 0, 0, 0, 0, 0, 0]\nclass = 01A", fillcolor="#e58139"] ;
4 -> 5 ;
6 [label="gini = 0.0\nsamples = 1234\nvalue = [0, 1234, 0, 0, 0, 0, 0, 0, 0, 0, 0, 0, 0, 0\n0, 0, 0, 0, 0, 0, 0, 0, 0, 0, 0]\nclass = 02", fillcolor="#e5a939"] ;
4 -> 6 ;
7 [label="gini = 0.0\nsamples = 7268\nvalue = [0, 0, 7268, 0, 0, 0, 0, 0, 0, 0, 0, 0, 0, 0\n0, 0, 0, 0, 0, 0, 0, 0, 0, 0, 0]\nclass = 03", fillcolor="#e5d139"] ;
3 -> 7 ;
8 [label="gini = 0.0\nsamples = 6098\nvalue = [0, 0, 0, 0, 0, 6098, 0, 0, 0, 0, 0, 0, 0, 0\n0, 0, 0, 0, 0, 0, 0, 0, 0, 0, 0]\nclass = 05", fillcolor="#7be539"] ;
2 -> 8 ;
9 [label="Primary Type <= 0.148\ngini = 0.001\nsamples = 48859\nvalue = [0, 20, 10, 0, 0, 0, 48829, 0, 0, 0, 0, 0, 0\n0, 0, 0, 0, 0, 0, 0, 0, 0, 0, 0, 0]\nclass = 06", fillcolor="#53e539"] ;
1 -> 9 ;
10 [label="Primary Type <= 0.063\ngini = 0.444\nsamples = 30\nvalue = [0, 20, 10, 0, 0, 0, 0, 0, 0, 0, 0, 0, 0, 0\n0, 0, 0, 0, 0, 0, 0, 0, 0, 0, 0]\nclass = 02", fillcolor="#f2d49c"] ;
9 -> 10 ;
11 [label="gini = 0.0\nsamples = 20\nvalue = [0, 20, 0, 0, 0, 0, 0, 0, 0, 0, 0, 0, 0, 0\n0, 0, 0, 0, 0, 0, 0, 0, 0, 0, 0]\nclass = 02", fillcolor="#e5a939"] ;
10 -> 11 ;
12 [label="gini = 0.0\nsamples = 10\nvalue = [0, 0, 10, 0, 0, 0, 0, 0, 0, 0, 0, 0, 0, 0\n0, 0, 0, 0, 0, 0, 0, 0, 0, 0, 0]\nclass = 03", fillcolor="#e5d139"] ;
10 -> 12 ;
13 [label="gini = 0.0\nsamples = 48829\nvalue = [0, 0, 0, 0, 0, 0, 48829, 0, 0, 0, 0, 0, 0, 0\n0, 0, 0, 0, 0, 0, 0, 0, 0, 0, 0]\nclass = 06", fillcolor="#53e539"] ;
9 -> 13 ;
14 [label="IUCR <= 0.408\ngini = 0.875\nsamples = 141115\nvalue = [0.0, 144.0, 0.0, 6300.0, 6529.0, 0.0, 0.0, 17309.0\n15594.0, 30557.0, 384.0, 1193.0, 10519.0, 28.0, 51.0\n22757.0, 6417.0, 241.0, 1266.0, 4759.0, 18.0, 546.0\n157.0, 1317.0, 15029.0]\nclass = 08B", fillcolor="#f2fdf8"] ;
0 -> 14 [labeldistance=2.5, labelangle=-45, headlabel="False"] ;
15 [label="IUCR <= 0.374\ngini = 0.733\nsamples = 76433\nvalue = [0, 144, 0, 6300, 6529, 0, 0, 17309, 15594, 30557\n0, 0, 0, 0, 0, 0, 0, 0, 0, 0, 0, 0, 0, 0\n0]\nclass = 08B", fillcolor="#d3f9e8"] ;
14 -> 15 ;
16 [label="Description <= 0.326\ngini = 0.703\nsamples = 45851\nvalue = [0, 144, 0, 6300, 6527, 0, 0, 17290, 15590, 0, 0\n0, 0, 0, 0, 0, 0, 0, 0, 0, 0, 0, 0, 0, 0]\nclass = 07", fillcolor="#f4fef5"] ;
15 -> 16 ;
17 [label="Description <= 0.262\ngini = 0.584\nsamples = 30211\nvalue = [0, 144, 0, 6292, 6516, 0, 0, 17259, 0, 0, 0, 0\n0, 0, 0, 0, 0, 0, 0, 0, 0, 0, 0, 0, 0]\nclass = 07", fillcolor="#a5f3ac"] ;
16 -> 17 ;
18 [label="Primary Type <= 0.301\ngini = 0.511\nsamples = 12939\nvalue = [0.0, 144.0, 0.0, 6283.0, 6512.0, 0.0, 0.0, 0.0, 0.0\n0.0, 0.0, 0.0, 0.0, 0.0, 0.0, 0.0, 0.0, 0.0, 0.0\n0.0, 0.0, 0.0, 0.0, 0.0, 0.0]\nclass = 04B", fillcolor="#fcfef8"] ;
17 -> 18 ;
19 [label="gini = 0.0\nsamples = 6283\nvalue = [0, 0, 0, 6283, 0, 0, 0, 0, 0, 0, 0, 0, 0, 0\n0, 0, 0, 0, 0, 0, 0, 0, 0, 0, 0]\nclass = 04A", fillcolor="#cee539"] ;
18 -> 19 ;
20 [label="Description <= 0.087\ngini = 0.042\nsamples = 6656\nvalue = [0, 144, 0, 0, 6512, 0, 0, 0, 0, 0, 0, 0, 0\n0, 0, 0, 0, 0, 0, 0, 0, 0, 0, 0, 0]\nclass = 04B", fillcolor="#a8e63d"] ;
18 -> 20 ;
21 [label="gini = 0.0\nsamples = 144\nvalue = [0, 144, 0, 0, 0, 0, 0, 0, 0, 0, 0, 0, 0, 0\n0, 0, 0, 0, 0, 0, 0, 0, 0, 0, 0]\nclass = 02", fillcolor="#e5a939"] ;
20 -> 21 ;
22 [label="gini = 0.0\nsamples = 6512\nvalue = [0, 0, 0, 0, 6512, 0, 0, 0, 0, 0, 0, 0, 0, 0\n0, 0, 0, 0, 0, 0, 0, 0, 0, 0, 0]\nclass = 04B", fillcolor="#a6e539"] ;
20 -> 22 ;
23 [label="IUCR <= 0.319\ngini = 0.002\nsamples = 17272\nvalue = [0, 0, 0, 9, 4, 0, 0, 17259, 0, 0, 0, 0, 0, 0\n0, 0, 0, 0, 0, 0, 0, 0, 0, 0, 0]\nclass = 07", fillcolor="#39e547"] ;
17 -> 23 ;
24 [label="gini = 0.0\nsamples = 17259\nvalue = [0, 0, 0, 0, 0, 0, 0, 17259, 0, 0, 0, 0, 0, 0\n0, 0, 0, 0, 0, 0, 0, 0, 0, 0, 0]\nclass = 07", fillcolor="#39e547"] ;
23 -> 24 ;
25 [label="IUCR <= 0.354\ngini = 0.426\nsamples = 13\nvalue = [0, 0, 0, 9, 4, 0, 0, 0, 0, 0, 0, 0, 0, 0\n0, 0, 0, 0, 0, 0, 0, 0, 0, 0, 0]\nclass = 04A", fillcolor="#e4f191"] ;
23 -> 25 ;
26 [label="gini = 0.0\nsamples = 9\nvalue = [0, 0, 0, 9, 0, 0, 0, 0, 0, 0, 0, 0, 0, 0\n0, 0, 0, 0, 0, 0, 0, 0, 0, 0, 0]\nclass = 04A", fillcolor="#cee539"] ;
25 -> 26 ;
27 [label="gini = 0.0\nsamples = 4\nvalue = [0, 0, 0, 0, 4, 0, 0, 0, 0, 0, 0, 0, 0, 0\n0, 0, 0, 0, 0, 0, 0, 0, 0, 0, 0]\nclass = 04B", fillcolor="#a6e539"] ;
25 -> 27 ;
28 [label="IUCR <= 0.347\ngini = 0.006\nsamples = 15640\nvalue = [0.0, 0.0, 0.0, 8.0, 11.0, 0.0, 0.0, 31.0, 15590.0\n0.0, 0.0, 0.0, 0.0, 0.0, 0.0, 0.0, 0.0, 0.0, 0.0\n0.0, 0.0, 0.0, 0.0, 0.0, 0.0]\nclass = 08A", fillcolor="#3ae572"] ;
16 -> 28 ;
29 [label="gini = 0.0\nsamples = 15590\nvalue = [0, 0, 0, 0, 0, 0, 0, 0, 15590, 0, 0, 0, 0, 0\n0, 0, 0, 0, 0, 0, 0, 0, 0, 0, 0]\nclass = 08A", fillcolor="#39e572"] ;
28 -> 29 ;
30 [label="Primary Type <= 0.315\ngini = 0.542\nsamples = 50\nvalue = [0, 0, 0, 8, 11, 0, 0, 31, 0, 0, 0, 0, 0, 0\n0, 0, 0, 0, 0, 0, 0, 0, 0, 0, 0]\nclass = 07", fillcolor="#99f2a1"] ;
28 -> 30 ;
31 [label="Primary Type <= 0.277\ngini = 0.326\nsamples = 39\nvalue = [0.0, 0.0, 0.0, 8.0, 0.0, 0.0, 0.0, 31.0, 0.0, 0.0\n0.0, 0.0, 0.0, 0.0, 0.0, 0.0, 0.0, 0.0, 0.0, 0.0\n0.0, 0.0, 0.0, 0.0, 0.0]\nclass = 07", fillcolor="#6cec76"] ;
30 -> 31 ;
32 [label="gini = 0.0\nsamples = 8\nvalue = [0, 0, 0, 8, 0, 0, 0, 0, 0, 0, 0, 0, 0, 0\n0, 0, 0, 0, 0, 0, 0, 0, 0, 0, 0]\nclass = 04A", fillcolor="#cee539"] ;
31 -> 32 ;
33 [label="gini = 0.0\nsamples = 31\nvalue = [0, 0, 0, 0, 0, 0, 0, 31, 0, 0, 0, 0, 0, 0\n0, 0, 0, 0, 0, 0, 0, 0, 0, 0, 0]\nclass = 07", fillcolor="#39e547"] ;
31 -> 33 ;
34 [label="gini = 0.0\nsamples = 11\nvalue = [0, 0, 0, 0, 11, 0, 0, 0, 0, 0, 0, 0, 0, 0\n0, 0, 0, 0, 0, 0, 0, 0, 0, 0, 0]\nclass = 04B", fillcolor="#a6e539"] ;
30 -> 34 ;
35 [label="Primary Type <= 0.315\ngini = 0.002\nsamples = 30582\nvalue = [0, 0, 0, 0, 2, 0, 0, 19, 4, 30557, 0, 0, 0\n0, 0, 0, 0, 0, 0, 0, 0, 0, 0, 0, 0]\nclass = 08B", fillcolor="#39e59a"] ;
15 -> 35 ;
36 [label="gini = 0.0\nsamples = 19\nvalue = [0, 0, 0, 0, 0, 0, 0, 19, 0, 0, 0, 0, 0, 0\n0, 0, 0, 0, 0, 0, 0, 0, 0, 0, 0]\nclass = 07", fillcolor="#39e547"] ;
35 -> 36 ;
37 [label="IUCR <= 0.377\ngini = 0.0\nsamples = 30563\nvalue = [0, 0, 0, 0, 2, 0, 0, 0, 4, 30557, 0, 0, 0, 0\n0, 0, 0, 0, 0, 0, 0, 0, 0, 0, 0]\nclass = 08B", fillcolor="#39e59a"] ;
35 -> 37 ;
38 [label="gini = 0.0\nsamples = 30555\nvalue = [0, 0, 0, 0, 0, 0, 0, 0, 0, 30555, 0, 0, 0, 0\n0, 0, 0, 0, 0, 0, 0, 0, 0, 0, 0]\nclass = 08B", fillcolor="#39e59a"] ;
37 -> 38 ;
39 [label="gini = 0.625\nsamples = 8\nvalue = [0, 0, 0, 0, 2, 0, 0, 0, 4, 2, 0, 0, 0, 0\n0, 0, 0, 0, 0, 0, 0, 0, 0, 0, 0]\nclass = 08A", fillcolor="#bdf6d0"] ;
37 -> 39 ;
40 [label="IUCR <= 0.959\ngini = 0.779\nsamples = 64682\nvalue = [0, 0, 0, 0, 0, 0, 0, 0, 0, 0, 384, 1193, 10519\n28, 51, 22757, 6417, 241, 1266, 4759, 18, 546, 157\n1317, 15029]\nclass = 14", fillcolor="#e0e0fb"] ;
14 -> 40 ;
41 [label="Primary Type <= 0.548\ngini = 0.721\nsamples = 50007\nvalue = [0.0, 0.0, 0.0, 0.0, 0.0, 0.0, 0.0, 0.0, 0.0, 0.0\n384.0, 1193.0, 10519.0, 28.0, 51.0, 22757.0, 6417.0\n241.0, 1266.0, 4759.0, 18.0, 546.0, 157.0, 1317.0, 354.0]\nclass = 14", fillcolor="#c2c2f7"] ;
40 -> 41 ;
42 [label="IUCR <= 0.463\ngini = 0.245\nsamples = 12193\nvalue = [0, 0, 0, 0, 0, 0, 0, 0, 0, 0, 384, 1193, 10519\n28, 50, 0, 2, 0, 12, 4, 0, 0, 0, 0, 1]\nclass = 11", fillcolor="#57bfe9"] ;
41 -> 42 ;
43 [label="IUCR <= 0.456\ngini = 0.433\nsamples = 1668\nvalue = [0.0, 0.0, 0.0, 0.0, 0.0, 0.0, 0.0, 0.0, 0.0, 0.0\n384.0, 1193.0, 85.0, 0.0, 0.0, 0.0, 2.0, 0.0, 4.0\n0.0, 0.0, 0.0, 0.0, 0.0, 0.0]\nclass = 10", fillcolor="#82e9ef"] ;
42 -> 43 ;
44 [label="IUCR <= 0.419\ngini = 0.306\nsamples = 472\nvalue = [0, 0, 0, 0, 0, 0, 0, 0, 0, 0, 384, 0, 85, 0\n0, 0, 2, 0, 1, 0, 0, 0, 0, 0, 0]\nclass = 09", fillcolor="#66ebd2"] ;
43 -> 44 ;
45 [label="gini = 0.0\nsamples = 384\nvalue = [0, 0, 0, 0, 0, 0, 0, 0, 0, 0, 384, 0, 0, 0\n0, 0, 0, 0, 0, 0, 0, 0, 0, 0, 0]\nclass = 09", fillcolor="#39e5c5"] ;
44 -> 45 ;
46 [label="Primary Type <= 0.471\ngini = 0.066\nsamples = 88\nvalue = [0, 0, 0, 0, 0, 0, 0, 0, 0, 0, 0, 0, 85, 0\n0, 0, 2, 0, 1, 0, 0, 0, 0, 0, 0]\nclass = 11", fillcolor="#40b7e6"] ;
44 -> 46 ;
47 [label="gini = 0.0\nsamples = 2\nvalue = [0, 0, 0, 0, 0, 0, 0, 0, 0, 0, 0, 0, 0, 0\n0, 0, 2, 0, 0, 0, 0, 0, 0, 0, 0]\nclass = 15", fillcolor="#6439e5"] ;
46 -> 47 ;
48 [label="Description <= 0.452\ngini = 0.023\nsamples = 86\nvalue = [0, 0, 0, 0, 0, 0, 0, 0, 0, 0, 0, 0, 85, 0\n0, 0, 0, 0, 1, 0, 0, 0, 0, 0, 0]\nclass = 11", fillcolor="#3bb5e5"] ;
46 -> 48 ;
49 [label="gini = 0.0\nsamples = 85\nvalue = [0, 0, 0, 0, 0, 0, 0, 0, 0, 0, 0, 0, 85, 0\n0, 0, 0, 0, 0, 0, 0, 0, 0, 0, 0]\nclass = 11", fillcolor="#39b4e5"] ;
48 -> 49 ;
50 [label="gini = 0.0\nsamples = 1\nvalue = [0, 0, 0, 0, 0, 0, 0, 0, 0, 0, 0, 0, 0, 0\n0, 0, 0, 0, 1, 0, 0, 0, 0, 0, 0]\nclass = 17", fillcolor="#b739e5"] ;
48 -> 50 ;
51 [label="Description <= 0.46\ngini = 0.005\nsamples = 1196\nvalue = [0, 0, 0, 0, 0, 0, 0, 0, 0, 0, 0, 1193, 0, 0\n0, 0, 0, 0, 3, 0, 0, 0, 0, 0, 0]\nclass = 10", fillcolor="#39dce5"] ;
43 -> 51 ;
52 [label="gini = 0.0\nsamples = 1193\nvalue = [0, 0, 0, 0, 0, 0, 0, 0, 0, 0, 0, 1193, 0, 0\n0, 0, 0, 0, 0, 0, 0, 0, 0, 0, 0]\nclass = 10", fillcolor="#39dce5"] ;
51 -> 52 ;
53 [label="gini = 0.0\nsamples = 3\nvalue = [0, 0, 0, 0, 0, 0, 0, 0, 0, 0, 0, 0, 0, 0\n0, 0, 0, 0, 3, 0, 0, 0, 0, 0, 0]\nclass = 17", fillcolor="#b739e5"] ;
51 -> 53 ;
54 [label="IUCR <= 0.5\ngini = 0.017\nsamples = 10525\nvalue = [0.0, 0.0, 0.0, 0.0, 0.0, 0.0, 0.0, 0.0, 0.0, 0.0\n0.0, 0.0, 10434.0, 28.0, 50.0, 0.0, 0.0, 0.0, 8.0\n4.0, 0.0, 0.0, 0.0, 0.0, 1.0]\nclass = 11", fillcolor="#3bb5e5"] ;
42 -> 54 ;
55 [label="Primary Type <= 0.492\ngini = 0.002\nsamples = 10447\nvalue = [0, 0, 0, 0, 0, 0, 0, 0, 0, 0, 0, 0, 10434, 0\n0, 0, 0, 0, 8, 4, 0, 0, 0, 0, 1]\nclass = 11", fillcolor="#39b4e5"] ;
54 -> 55 ;
56 [label="IUCR <= 0.488\ngini = 0.521\nsamples = 13\nvalue = [0, 0, 0, 0, 0, 0, 0, 0, 0, 0, 0, 0, 0, 0\n0, 0, 0, 0, 8, 4, 0, 0, 0, 0, 1]\nclass = 17", fillcolor="#dfa7f3"] ;
55 -> 56 ;
57 [label="gini = 0.32\nsamples = 5\nvalue = [0, 0, 0, 0, 0, 0, 0, 0, 0, 0, 0, 0, 0, 0\n0, 0, 0, 0, 0, 4, 0, 0, 0, 0, 1]\nclass = 18", fillcolor="#e76aec"] ;
56 -> 57 ;
58 [label="gini = 0.0\nsamples = 8\nvalue = [0, 0, 0, 0, 0, 0, 0, 0, 0, 0, 0, 0, 0, 0\n0, 0, 0, 0, 8, 0, 0, 0, 0, 0, 0]\nclass = 17", fillcolor="#b739e5"] ;
56 -> 58 ;
59 [label="gini = 0.0\nsamples = 10434\nvalue = [0, 0, 0, 0, 0, 0, 0, 0, 0, 0, 0, 0, 10434, 0\n0, 0, 0, 0, 0, 0, 0, 0, 0, 0, 0]\nclass = 11", fillcolor="#39b4e5"] ;
55 -> 59 ;
60 [label="Description <= 0.538\ngini = 0.46\nsamples = 78\nvalue = [0.0, 0.0, 0.0, 0.0, 0.0, 0.0, 0.0, 0.0, 0.0, 0.0\n0.0, 0.0, 0.0, 28.0, 50.0, 0.0, 0.0, 0.0, 0.0, 0.0\n0.0, 0.0, 0.0, 0.0, 0.0]\nclass = 13", fillcolor="#a8b9f4"] ;
54 -> 60 ;
61 [label="gini = 0.0\nsamples = 28\nvalue = [0, 0, 0, 0, 0, 0, 0, 0, 0, 0, 0, 0, 0, 28\n0, 0, 0, 0, 0, 0, 0, 0, 0, 0, 0]\nclass = 12", fillcolor="#3989e5"] ;
60 -> 61 ;
62 [label="gini = 0.0\nsamples = 50\nvalue = [0, 0, 0, 0, 0, 0, 0, 0, 0, 0, 0, 0, 0, 0\n50, 0, 0, 0, 0, 0, 0, 0, 0, 0, 0]\nclass = 13", fillcolor="#3961e5"] ;
60 -> 62 ;
63 [label="Primary Type <= 0.633\ngini = 0.591\nsamples = 37814\nvalue = [0.0, 0.0, 0.0, 0.0, 0.0, 0.0, 0.0, 0.0, 0.0, 0.0\n0.0, 0.0, 0.0, 0.0, 1.0, 22757.0, 6415.0, 241.0\n1254.0, 4755.0, 18.0, 546.0, 157.0, 1317.0, 353.0]\nclass = 14", fillcolor="#9898f1"] ;
41 -> 63 ;
64 [label="Primary Type <= 0.615\ngini = 0.003\nsamples = 22788\nvalue = [0.0, 0.0, 0.0, 0.0, 0.0, 0.0, 0.0, 0.0, 0.0, 0.0\n0.0, 0.0, 0.0, 0.0, 0.0, 22757.0, 0.0, 0.0, 0.0, 0.0\n18.0, 0.0, 0.0, 0.0, 13.0]\nclass = 14", fillcolor="#3939e5"] ;
63 -> 64 ;
65 [label="Arrest_True <= 0.5\ngini = 0.487\nsamples = 31\nvalue = [0, 0, 0, 0, 0, 0, 0, 0, 0, 0, 0, 0, 0, 0\n0, 0, 0, 0, 0, 0, 18, 0, 0, 0, 13]\nclass = 19", fillcolor="#f8c8ed"] ;
64 -> 65 ;
66 [label="gini = 0.0\nsamples = 13\nvalue = [0, 0, 0, 0, 0, 0, 0, 0, 0, 0, 0, 0, 0, 0\n0, 0, 0, 0, 0, 0, 0, 0, 0, 0, 13]\nclass = 26", fillcolor="#e55639"] ;
65 -> 66 ;
67 [label="gini = 0.0\nsamples = 18\nvalue = [0, 0, 0, 0, 0, 0, 0, 0, 0, 0, 0, 0, 0, 0\n0, 0, 0, 0, 0, 0, 18, 0, 0, 0, 0]\nclass = 19", fillcolor="#e539c0"] ;
65 -> 67 ;
68 [label="gini = 0.0\nsamples = 22757\nvalue = [0, 0, 0, 0, 0, 0, 0, 0, 0, 0, 0, 0, 0, 0\n0, 22757, 0, 0, 0, 0, 0, 0, 0, 0, 0]\nclass = 14", fillcolor="#3939e5"] ;
64 -> 68 ;
69 [label="Primary Type <= 0.688\ngini = 0.701\nsamples = 15026\nvalue = [0, 0, 0, 0, 0, 0, 0, 0, 0, 0, 0, 0, 0, 0\n1, 0, 6415, 241, 1254, 4755, 0, 546, 157, 1317\n340]\nclass = 15", fillcolor="#e6dffb"] ;
63 -> 69 ;
70 [label="Primary Type <= 0.654\ngini = 0.201\nsamples = 7207\nvalue = [0.0, 0.0, 0.0, 0.0, 0.0, 0.0, 0.0, 0.0, 0.0, 0.0\n0.0, 0.0, 0.0, 0.0, 0.0, 0.0, 6415.0, 0.0, 241.0\n0.0, 0.0, 546.0, 0.0, 0.0, 5.0]\nclass = 15", fillcolor="#7651e8"] ;
69 -> 70 ;
71 [label="IUCR <= 0.785\ngini = 0.432\nsamples = 792\nvalue = [0, 0, 0, 0, 0, 0, 0, 0, 0, 0, 0, 0, 0, 0\n0, 0, 0, 0, 241, 0, 0, 546, 0, 0, 5]\nclass = 20", fillcolor="#f191c6"] ;
70 -> 71 ;
72 [label="Description <= 0.626\ngini = 0.138\nsamples = 260\nvalue = [0, 0, 0, 0, 0, 0, 0, 0, 0, 0, 0, 0, 0, 0\n0, 0, 0, 0, 241, 0, 0, 14, 0, 0, 5]\nclass = 17", fillcolor="#bd48e7"] ;
71 -> 72 ;
73 [label="Description <= 0.51\ngini = 0.525\nsamples = 22\nvalue = [0, 0, 0, 0, 0, 0, 0, 0, 0, 0, 0, 0, 0, 0\n0, 0, 0, 0, 3, 0, 0, 14, 0, 0, 5]\nclass = 20", fillcolor="#f196c8"] ;
72 -> 73 ;
74 [label="IUCR <= 0.466\ngini = 0.291\nsamples = 17\nvalue = [0, 0, 0, 0, 0, 0, 0, 0, 0, 0, 0, 0, 0, 0\n0, 0, 0, 0, 3, 0, 0, 14, 0, 0, 0]\nclass = 20", fillcolor="#eb63ae"] ;
73 -> 74 ;
75 [label="gini = 0.0\nsamples = 3\nvalue = [0, 0, 0, 0, 0, 0, 0, 0, 0, 0, 0, 0, 0, 0\n0, 0, 0, 0, 3, 0, 0, 0, 0, 0, 0]\nclass = 17", fillcolor="#b739e5"] ;
74 -> 75 ;
76 [label="gini = 0.0\nsamples = 14\nvalue = [0, 0, 0, 0, 0, 0, 0, 0, 0, 0, 0, 0, 0, 0\n0, 0, 0, 0, 0, 0, 0, 14, 0, 0, 0]\nclass = 20", fillcolor="#e53998"] ;
74 -> 76 ;
77 [label="gini = 0.0\nsamples = 5\nvalue = [0, 0, 0, 0, 0, 0, 0, 0, 0, 0, 0, 0, 0, 0\n0, 0, 0, 0, 0, 0, 0, 0, 0, 0, 5]\nclass = 26", fillcolor="#e55639"] ;
73 -> 77 ;
78 [label="gini = 0.0\nsamples = 238\nvalue = [0, 0, 0, 0, 0, 0, 0, 0, 0, 0, 0, 0, 0, 0\n0, 0, 0, 0, 238, 0, 0, 0, 0, 0, 0]\nclass = 17", fillcolor="#b739e5"] ;
72 -> 78 ;
79 [label="gini = 0.0\nsamples = 532\nvalue = [0, 0, 0, 0, 0, 0, 0, 0, 0, 0, 0, 0, 0, 0\n0, 0, 0, 0, 0, 0, 0, 532, 0, 0, 0]\nclass = 20", fillcolor="#e53998"] ;
71 -> 79 ;
80 [label="gini = 0.0\nsamples = 6415\nvalue = [0, 0, 0, 0, 0, 0, 0, 0, 0, 0, 0, 0, 0, 0\n0, 0, 6415, 0, 0, 0, 0, 0, 0, 0, 0]\nclass = 15", fillcolor="#6439e5"] ;
70 -> 80 ;
81 [label="Primary Type <= 0.828\ngini = 0.582\nsamples = 7819\nvalue = [0.0, 0.0, 0.0, 0.0, 0.0, 0.0, 0.0, 0.0, 0.0, 0.0\n0.0, 0.0, 0.0, 0.0, 1.0, 0.0, 0.0, 241.0, 1013.0\n4755.0, 0.0, 0.0, 157.0, 1317.0, 335.0]\nclass = 18", fillcolor="#ee96f1"] ;
69 -> 81 ;
82 [label="Primary Type <= 0.771\ngini = 0.341\nsamples = 5989\nvalue = [0, 0, 0, 0, 0, 0, 0, 0, 0, 0, 0, 0, 0, 0\n0, 0, 0, 241, 981, 4755, 0, 0, 0, 0, 12]\nclass = 18", fillcolor="#e76aeb"] ;
81 -> 82 ;
83 [label="Primary Type <= 0.729\ngini = 0.318\nsamples = 1223\nvalue = [0, 0, 0, 0, 0, 0, 0, 0, 0, 0, 0, 0, 0, 0\n0, 0, 0, 241, 981, 0, 0, 0, 0, 0, 1]\nclass = 17", fillcolor="#c96aeb"] ;
82 -> 83 ;
84 [label="gini = 0.0\nsamples = 241\nvalue = [0, 0, 0, 0, 0, 0, 0, 0, 0, 0, 0, 0, 0, 0\n0, 0, 0, 241, 0, 0, 0, 0, 0, 0, 0]\nclass = 16", fillcolor="#8c39e5"] ;
83 -> 84 ;
85 [label="IUCR <= 0.491\ngini = 0.002\nsamples = 982\nvalue = [0.0, 0.0, 0.0, 0.0, 0.0, 0.0, 0.0, 0.0, 0.0, 0.0\n0.0, 0.0, 0.0, 0.0, 0.0, 0.0, 0.0, 0.0, 981.0, 0.0\n0.0, 0.0, 0.0, 0.0, 1.0]\nclass = 17", fillcolor="#b739e5"] ;
83 -> 85 ;
86 [label="IUCR <= 0.482\ngini = 0.083\nsamples = 23\nvalue = [0, 0, 0, 0, 0, 0, 0, 0, 0, 0, 0, 0, 0, 0\n0, 0, 0, 0, 22, 0, 0, 0, 0, 0, 1]\nclass = 17", fillcolor="#ba42e6"] ;
85 -> 86 ;
87 [label="gini = 0.0\nsamples = 22\nvalue = [0, 0, 0, 0, 0, 0, 0, 0, 0, 0, 0, 0, 0, 0\n0, 0, 0, 0, 22, 0, 0, 0, 0, 0, 0]\nclass = 17", fillcolor="#b739e5"] ;
86 -> 87 ;
88 [label="gini = 0.0\nsamples = 1\nvalue = [0, 0, 0, 0, 0, 0, 0, 0, 0, 0, 0, 0, 0, 0\n0, 0, 0, 0, 0, 0, 0, 0, 0, 0, 1]\nclass = 26", fillcolor="#e55639"] ;
86 -> 88 ;
89 [label="gini = 0.0\nsamples = 959\nvalue = [0, 0, 0, 0, 0, 0, 0, 0, 0, 0, 0, 0, 0, 0\n0, 0, 0, 0, 959, 0, 0, 0, 0, 0, 0]\nclass = 17", fillcolor="#b739e5"] ;
85 -> 89 ;
90 [label="Description <= 0.586\ngini = 0.005\nsamples = 4766\nvalue = [0, 0, 0, 0, 0, 0, 0, 0, 0, 0, 0, 0, 0, 0\n0, 0, 0, 0, 0, 4755, 0, 0, 0, 0, 11]\nclass = 18", fillcolor="#df39e5"] ;
82 -> 90 ;
91 [label="IUCR <= 0.559\ngini = 0.209\nsamples = 93\nvalue = [0, 0, 0, 0, 0, 0, 0, 0, 0, 0, 0, 0, 0, 0\n0, 0, 0, 0, 0, 82, 0, 0, 0, 0, 11]\nclass = 18", fillcolor="#e354e8"] ;
90 -> 91 ;
92 [label="gini = 0.0\nsamples = 82\nvalue = [0, 0, 0, 0, 0, 0, 0, 0, 0, 0, 0, 0, 0, 0\n0, 0, 0, 0, 0, 82, 0, 0, 0, 0, 0]\nclass = 18", fillcolor="#df39e5"] ;
91 -> 92 ;
93 [label="gini = 0.0\nsamples = 11\nvalue = [0, 0, 0, 0, 0, 0, 0, 0, 0, 0, 0, 0, 0, 0\n0, 0, 0, 0, 0, 0, 0, 0, 0, 0, 11]\nclass = 26", fillcolor="#e55639"] ;
91 -> 93 ;
94 [label="gini = 0.0\nsamples = 4673\nvalue = [0, 0, 0, 0, 0, 0, 0, 0, 0, 0, 0, 0, 0, 0\n0, 0, 0, 0, 0, 4673, 0, 0, 0, 0, 0]\nclass = 18", fillcolor="#df39e5"] ;
90 -> 94 ;
95 [label="Primary Type <= 0.938\ngini = 0.443\nsamples = 1830\nvalue = [0, 0, 0, 0, 0, 0, 0, 0, 0, 0, 0, 0, 0, 0\n1, 0, 0, 0, 32, 0, 0, 0, 157, 1317, 323]\nclass = 24", fillcolor="#ee7c84"] ;
81 -> 95 ;
96 [label="Primary Type <= 0.912\ngini = 0.564\nsamples = 405\nvalue = [0.0, 0.0, 0.0, 0.0, 0.0, 0.0, 0.0, 0.0, 0.0, 0.0\n0.0, 0.0, 0.0, 0.0, 1.0, 0.0, 0.0, 0.0, 32.0, 0.0\n0.0, 0.0, 157.0, 1.0, 214.0]\nclass = 26", fillcolor="#f9d8d1"] ;
95 -> 96 ;
97 [label="Description <= 0.582\ngini = 0.239\nsamples = 248\nvalue = [0, 0, 0, 0, 0, 0, 0, 0, 0, 0, 0, 0, 0, 0\n1, 0, 0, 0, 32, 0, 0, 0, 0, 1, 214]\nclass = 26", fillcolor="#e97158"] ;
96 -> 97 ;
98 [label="Description <= 0.549\ngini = 0.528\nsamples = 61\nvalue = [0, 0, 0, 0, 0, 0, 0, 0, 0, 0, 0, 0, 0, 0\n1, 0, 0, 0, 32, 0, 0, 0, 0, 1, 27]\nclass = 17", fillcolor="#f4e2fb"] ;
97 -> 98 ;
99 [label="Description <= 0.491\ngini = 0.49\nsamples = 42\nvalue = [0.0, 0.0, 0.0, 0.0, 0.0, 0.0, 0.0, 0.0, 0.0, 0.0\n0.0, 0.0, 0.0, 0.0, 1.0, 0.0, 0.0, 0.0, 13.0, 0.0\n0.0, 0.0, 0.0, 1.0, 27.0]\nclass = 26", fillcolor="#f2ad9f"] ;
98 -> 99 ;
100 [label="Primary Type <= 0.885\ngini = 0.482\nsamples = 19\nvalue = [0, 0, 0, 0, 0, 0, 0, 0, 0, 0, 0, 0, 0, 0\n1, 0, 0, 0, 13, 0, 0, 0, 0, 1, 4]\nclass = 17", fillcolor="#d488ef"] ;
99 -> 100 ;
101 [label="gini = 0.5\nsamples = 6\nvalue = [0, 0, 0, 0, 0, 0, 0, 0, 0, 0, 0, 0, 0, 0\n1, 0, 0, 0, 0, 0, 0, 0, 0, 1, 4]\nclass = 26", fillcolor="#ef9a88"] ;
100 -> 101 ;
102 [label="gini = 0.0\nsamples = 13\nvalue = [0, 0, 0, 0, 0, 0, 0, 0, 0, 0, 0, 0, 0, 0\n0, 0, 0, 0, 13, 0, 0, 0, 0, 0, 0]\nclass = 17", fillcolor="#b739e5"] ;
100 -> 102 ;
103 [label="gini = 0.0\nsamples = 23\nvalue = [0, 0, 0, 0, 0, 0, 0, 0, 0, 0, 0, 0, 0, 0\n0, 0, 0, 0, 0, 0, 0, 0, 0, 0, 23]\nclass = 26", fillcolor="#e55639"] ;
99 -> 103 ;
104 [label="gini = 0.0\nsamples = 19\nvalue = [0, 0, 0, 0, 0, 0, 0, 0, 0, 0, 0, 0, 0, 0\n0, 0, 0, 0, 19, 0, 0, 0, 0, 0, 0]\nclass = 17", fillcolor="#b739e5"] ;
98 -> 104 ;
105 [label="gini = 0.0\nsamples = 187\nvalue = [0, 0, 0, 0, 0, 0, 0, 0, 0, 0, 0, 0, 0, 0\n0, 0, 0, 0, 0, 0, 0, 0, 0, 0, 187]\nclass = 26", fillcolor="#e55639"] ;
97 -> 105 ;
106 [label="gini = 0.0\nsamples = 157\nvalue = [0, 0, 0, 0, 0, 0, 0, 0, 0, 0, 0, 0, 0, 0\n0, 0, 0, 0, 0, 0, 0, 0, 157, 0, 0]\nclass = 22", fillcolor="#e5396f"] ;
96 -> 106 ;
107 [label="Primary Type <= 0.979\ngini = 0.141\nsamples = 1425\nvalue = [0, 0, 0, 0, 0, 0, 0, 0, 0, 0, 0, 0, 0, 0\n0, 0, 0, 0, 0, 0, 0, 0, 0, 1316, 109]\nclass = 24", fillcolor="#e74953"] ;
95 -> 107 ;
108 [label="IUCR <= 0.527\ngini = 0.018\nsamples = 1328\nvalue = [0, 0, 0, 0, 0, 0, 0, 0, 0, 0, 0, 0, 0, 0\n0, 0, 0, 0, 0, 0, 0, 0, 0, 1316, 12]\nclass = 24", fillcolor="#e53b46"] ;
107 -> 108 ;
109 [label="Primary Type <= 0.959\ngini = 0.48\nsamples = 30\nvalue = [0, 0, 0, 0, 0, 0, 0, 0, 0, 0, 0, 0, 0, 0\n0, 0, 0, 0, 0, 0, 0, 0, 0, 18, 12]\nclass = 24", fillcolor="#f6bdc1"] ;
108 -> 109 ;
110 [label="IUCR <= 0.506\ngini = 0.34\nsamples = 23\nvalue = [0, 0, 0, 0, 0, 0, 0, 0, 0, 0, 0, 0, 0, 0\n0, 0, 0, 0, 0, 0, 0, 0, 0, 18, 5]\nclass = 24", fillcolor="#ec7078"] ;
109 -> 110 ;
111 [label="gini = 0.408\nsamples = 7\nvalue = [0, 0, 0, 0, 0, 0, 0, 0, 0, 0, 0, 0, 0, 0\n0, 0, 0, 0, 0, 0, 0, 0, 0, 2, 5]\nclass = 26", fillcolor="#ef9a88"] ;
110 -> 111 ;
112 [label="gini = 0.0\nsamples = 16\nvalue = [0, 0, 0, 0, 0, 0, 0, 0, 0, 0, 0, 0, 0, 0\n0, 0, 0, 0, 0, 0, 0, 0, 0, 16, 0]\nclass = 24", fillcolor="#e53944"] ;
110 -> 112 ;
113 [label="gini = 0.0\nsamples = 7\nvalue = [0, 0, 0, 0, 0, 0, 0, 0, 0, 0, 0, 0, 0, 0\n0, 0, 0, 0, 0, 0, 0, 0, 0, 0, 7]\nclass = 26", fillcolor="#e55639"] ;
109 -> 113 ;
114 [label="gini = 0.0\nsamples = 1298\nvalue = [0, 0, 0, 0, 0, 0, 0, 0, 0, 0, 0, 0, 0, 0\n0, 0, 0, 0, 0, 0, 0, 0, 0, 1298, 0]\nclass = 24", fillcolor="#e53944"] ;
108 -> 114 ;
115 [label="gini = 0.0\nsamples = 97\nvalue = [0, 0, 0, 0, 0, 0, 0, 0, 0, 0, 0, 0, 0, 0\n0, 0, 0, 0, 0, 0, 0, 0, 0, 0, 97]\nclass = 26", fillcolor="#e55639"] ;
107 -> 115 ;
116 [label="gini = 0.0\nsamples = 14675\nvalue = [0, 0, 0, 0, 0, 0, 0, 0, 0, 0, 0, 0, 0, 0\n0, 0, 0, 0, 0, 0, 0, 0, 0, 0, 14675]\nclass = 26", fillcolor="#e55639"] ;
40 -> 116 ;
}